-4.939973820000886917e-03 5.704258009791374207e-02 -9.799578785896301270e-02 -3.809832269325852394e-04 6.186367943882942200e-02 4.956180602312088013e-02 -2.201525717973709106e-01 2.545415759086608887e-01 -4.002420902252197266e-01 2.744030952453613281e-01
-6.174122914671897888e-02 -1.053497418761253357e-01 -1.237363517284393311e-01 -1.011284589767456055e-01 -1.225540488958358765e-01 -1.962982118129730225e-01 7.916004396975040436e-03 -5.661637187004089355e-01 4.182742238044738770e-01 -5.827769637107849121e-01
-4.432266578078269958e-03 9.602289646863937378e-03 -1.032459214329719543e-01 -1.501287519931793213e-02 -1.102071925997734070e-01 2.232143580913543701e-01 1.184542756527662277e-02 -3.147099316120147705e-01 5.299365520477294922e-01 -3.966974616050720215e-01
3.897105529904365540e-02 -1.133362110704183578e-02 -4.089177027344703674e-02 2.686101943254470825e-02 -3.824460506439208984e-02 9.615502506494522095e-02 4.881653934717178345e-02 -1.295446008443832397e-01 2.214212119579315186e-01 1.043265536427497864e-01
1.322291977703571320e-02 -5.433722212910652161e-02 -2.367442660033702850e-02 4.447805136442184448e-02 -1.944572329521179199e-01 1.824263036251068115e-01 -1.475970596075057983e-01 -6.569169461727142334e-02 3.481658399105072021e-01 -1.227921321988105774e-01
2.473148703575134277e-02 1.140651553869247437e-01 1.319365799427032471e-01 1.582908630371093750e-02 1.976711452007293701e-01 -2.791551947593688965e-01 3.620613217353820801e-01 -1.019149124622344971e-01 -2.188580483198165894e-02 1.292291134595870972e-01
7.106056902557611465e-03 -3.628933802247047424e-02 6.026839837431907654e-02 7.957342080771923065e-03 -1.435272544622421265e-01 1.948378980159759521e-01 -2.675083279609680176e-01 3.223257362842559814e-01 -1.389511972665786743e-01 -5.534378066658973694e-02
8.988441899418830872e-03 -2.722516842186450958e-02 3.615596145391464233e-02 1.023862436413764954e-01 2.723021991550922394e-02 -1.254826132208108902e-02 -2.037526853382587433e-02 -2.150011062622070312e-01 1.236460208892822266e-01 -9.333083033561706543e-02
-2.233431208878755569e-03 -1.425491180270910263e-02 4.372734576463699341e-02 -1.542650461196899414e-01 2.407450228929519653e-01 -5.511030554771423340e-01 5.303756594657897949e-01 -3.732560575008392334e-02 -3.780105710029602051e-01 4.311901032924652100e-01
-4.473660606890916824e-03 3.365910425782203674e-02 -5.528989061713218689e-02 -9.345803409814834595e-03 1.425350308418273926e-01 -1.907783150672912598e-01 2.625169456005096436e-01 -3.077833056449890137e-01 1.338635385036468506e-01 5.615336447954177856e-02
1.709917373955249786e-02 3.476485842838883400e-03 -1.885589770972728729e-02 1.098847761750221252e-02 -1.336541213095188141e-02 1.400178391486406326e-02 -1.133171439170837402e+00 -1.441349368542432785e-02 -1.600536517798900604e-02 -1.008723497390747070e+00
3.708236292004585266e-02 -2.610095962882041931e-02 -3.377582877874374390e-02 -3.596888482570648193e-02 3.461384773254394531e-02 -2.505247667431831360e-02 5.607502534985542297e-02 -3.600403666496276855e-02 -4.798792302608489990e-02 -6.600816547870635986e-02